-1.2544660627559279
-0.009620225354834928
-0.770412385578779
-1.2425542232567213
-1.1542313925846999
2.49734621556177
2.2451543367976314
-0.7732869777674812
-1.3122125793424972
-1.3096411092377067
-0.3244419357017837
0.4334246481505697
0.24581961694332274
-1.0386619307936091
-1.1096759409074055
-1.0859072647436707
-1.7365484625846743
0.4273054079342368
1.7847165797855498
-0.9997996410974297
2.3956985316116985
2.5189582103647203
-0.8561103627060791
2.9276513070780847
1.9553522709360096
0.06704909356773389
0.23004102138505697
0.07544238691779712
0.11387390303571189
0.09606808930109753
0.21521043911728308
-1.6764454033792429
0.2276333606401297
1.103861137697538
-1.6623840976422262
-0.38861948757615206
1.3460736589317188
1.2337893949490448
0.0008116229203315624
0.7290004021825415
1.2530669869703386
1.1784344079517075
-2.4546150674956295
-2.2101846009385304
0.7995401907255641
1.3652628219686216
1.2970241724269338
0.35385706615438384
-0.408627682058985
-0.23405310292498763
1.0342882713332344
1.1358914431589608
1.0611573506753578
1.742294339145006
-0.4403051880362162
-1.821658376934741
1.0055562354588385
-2.432047142326029
-2.5185390507206127
0.8284174263302219
-2.9371132559477866
-1.9789762272428595
-0.08522553881859468
-0.22691111481074386
-0.07568895232806276
-0.10321231350016795
-0.12149766635594593
-0.18177511896139825
1.6512040959874292
-0.21718276277513981
-1.1249747966462469
1.693844352544839
0.4146081132681012
-1.345365741163431
